<Nnet>
<Splice> 360 360
[ 0 ]
<AddShift> 360 360
<LearnRateCoef> 0  [ -12.73281 -13.19335 -13.81412 -14.56422 -14.70978 -14.7107 -14.92744 -15.1071 -14.99224 -15.0241 -14.90588 -14.8646 -14.83045 -14.83602 -14.80148 -14.60577 -14.51015 -14.4941 -14.48128 -14.40396 -14.33682 -14.2769 -14.25317 -14.29646 -14.30813 -14.34834 -14.49313 -14.60755 -14.50475 -14.39552 -14.37324 -14.31571 -14.17719 -13.98888 -13.82496 -13.70113 -13.51816 -13.13525 -12.63183 -11.83946 -12.73281 -13.19335 -13.81412 -14.56422 -14.70978 -14.7107 -14.92744 -15.1071 -14.99224 -15.0241 -14.90588 -14.8646 -14.83045 -14.83602 -14.80148 -14.60577 -14.51015 -14.4941 -14.48128 -14.40396 -14.33682 -14.2769 -14.25317 -14.29646 -14.30813 -14.34834 -14.49313 -14.60755 -14.50475 -14.39552 -14.37324 -14.31571 -14.17719 -13.98888 -13.82496 -13.70113 -13.51816 -13.13525 -12.63183 -11.83946 -12.73281 -13.19335 -13.81412 -14.56422 -14.70978 -14.7107 -14.92744 -15.1071 -14.99224 -15.0241 -14.90588 -14.8646 -14.83045 -14.83602 -14.80148 -14.60577 -14.51015 -14.4941 -14.48128 -14.40396 -14.33682 -14.2769 -14.25317 -14.29646 -14.30813 -14.34834 -14.49313 -14.60755 -14.50475 -14.39552 -14.37324 -14.31571 -14.17719 -13.98888 -13.82496 -13.70113 -13.51816 -13.13525 -12.63183 -11.83946 -12.73281 -13.19335 -13.81412 -14.56422 -14.70978 -14.7107 -14.92744 -15.1071 -14.99224 -15.0241 -14.90588 -14.8646 -14.83045 -14.83602 -14.80148 -14.60577 -14.51015 -14.4941 -14.48128 -14.40396 -14.33682 -14.2769 -14.25317 -14.29646 -14.30813 -14.34834 -14.49313 -14.60755 -14.50475 -14.39552 -14.37324 -14.31571 -14.17719 -13.98888 -13.82496 -13.70113 -13.51816 -13.13525 -12.63183 -11.83946 -12.73281 -13.19335 -13.81412 -14.56422 -14.70978 -14.7107 -14.92744 -15.1071 -14.99224 -15.0241 -14.90588 -14.8646 -14.83045 -14.83602 -14.80148 -14.60577 -14.51015 -14.4941 -14.48128 -14.40396 -14.33682 -14.2769 -14.25317 -14.29646 -14.30813 -14.34834 -14.49313 -14.60755 -14.50475 -14.39552 -14.37324 -14.31571 -14.17719 -13.98888 -13.82496 -13.70113 -13.51816 -13.13525 -12.63183 -11.83946 -12.73281 -13.19335 -13.81412 -14.56422 -14.70978 -14.7107 -14.92744 -15.1071 -14.99224 -15.0241 -14.90588 -14.8646 -14.83045 -14.83602 -14.80148 -14.60577 -14.51015 -14.4941 -14.48128 -14.40396 -14.33682 -14.2769 -14.25317 -14.29646 -14.30813 -14.34834 -14.49313 -14.60755 -14.50475 -14.39552 -14.37324 -14.31571 -14.17719 -13.98888 -13.82496 -13.70113 -13.51816 -13.13525 -12.63183 -11.83946 -12.73281 -13.19335 -13.81412 -14.56422 -14.70978 -14.7107 -14.92744 -15.1071 -14.99224 -15.0241 -14.90588 -14.8646 -14.83045 -14.83602 -14.80148 -14.60577 -14.51015 -14.4941 -14.48128 -14.40396 -14.33682 -14.2769 -14.25317 -14.29646 -14.30813 -14.34834 -14.49313 -14.60755 -14.50475 -14.39552 -14.37324 -14.31571 -14.17719 -13.98888 -13.82496 -13.70113 -13.51816 -13.13525 -12.63183 -11.83946 -12.73281 -13.19335 -13.81412 -14.56422 -14.70978 -14.7107 -14.92744 -15.1071 -14.99224 -15.0241 -14.90588 -14.8646 -14.83045 -14.83602 -14.80148 -14.60577 -14.51015 -14.4941 -14.48128 -14.40396 -14.33682 -14.2769 -14.25317 -14.29646 -14.30813 -14.34834 -14.49313 -14.60755 -14.50475 -14.39552 -14.37324 -14.31571 -14.17719 -13.98888 -13.82496 -13.70113 -13.51816 -13.13525 -12.63183 -11.83946 -12.73281 -13.19335 -13.81412 -14.56422 -14.70978 -14.7107 -14.92744 -15.1071 -14.99224 -15.0241 -14.90588 -14.8646 -14.83045 -14.83602 -14.80148 -14.60577 -14.51015 -14.4941 -14.48128 -14.40396 -14.33682 -14.2769 -14.25317 -14.29646 -14.30813 -14.34834 -14.49313 -14.60755 -14.50475 -14.39552 -14.37324 -14.31571 -14.17719 -13.98888 -13.82496 -13.70113 -13.51816 -13.13525 -12.63183 -11.83946 ]
<Rescale> 360 360
<LearnRateCoef> 0  [ 0.3917696 0.3228583 0.2849519 0.256763 0.2454807 0.2381837 0.2282644 0.2177379 0.2159467 0.2181547 0.2196853 0.2204247 0.2219707 0.2208058 0.2237806 0.2306758 0.2323936 0.237082 0.2399206 0.2430726 0.2499065 0.2559407 0.2578043 0.2583238 0.2598742 0.2615896 0.2623606 0.256712 0.2528442 0.2535227 0.2543413 0.2558617 0.2632993 0.2725573 0.2786502 0.2823137 0.2781305 0.2739484 0.279435 0.3210033 0.3917696 0.3228583 0.2849519 0.256763 0.2454807 0.2381837 0.2282644 0.2177379 0.2159467 0.2181547 0.2196853 0.2204247 0.2219707 0.2208058 0.2237806 0.2306758 0.2323936 0.237082 0.2399206 0.2430726 0.2499065 0.2559407 0.2578043 0.2583238 0.2598742 0.2615896 0.2623606 0.256712 0.2528442 0.2535227 0.2543413 0.2558617 0.2632993 0.2725573 0.2786502 0.2823137 0.2781305 0.2739484 0.279435 0.3210033 0.3917696 0.3228583 0.2849519 0.256763 0.2454807 0.2381837 0.2282644 0.2177379 0.2159467 0.2181547 0.2196853 0.2204247 0.2219707 0.2208058 0.2237806 0.2306758 0.2323936 0.237082 0.2399206 0.2430726 0.2499065 0.2559407 0.2578043 0.2583238 0.2598742 0.2615896 0.2623606 0.256712 0.2528442 0.2535227 0.2543413 0.2558617 0.2632993 0.2725573 0.2786502 0.2823137 0.2781305 0.2739484 0.279435 0.3210033 0.3917696 0.3228583 0.2849519 0.256763 0.2454807 0.2381837 0.2282644 0.2177379 0.2159467 0.2181547 0.2196853 0.2204247 0.2219707 0.2208058 0.2237806 0.2306758 0.2323936 0.237082 0.2399206 0.2430726 0.2499065 0.2559407 0.2578043 0.2583238 0.2598742 0.2615896 0.2623606 0.256712 0.2528442 0.2535227 0.2543413 0.2558617 0.2632993 0.2725573 0.2786502 0.2823137 0.2781305 0.2739484 0.279435 0.3210033 0.3917696 0.3228583 0.2849519 0.256763 0.2454807 0.2381837 0.2282644 0.2177379 0.2159467 0.2181547 0.2196853 0.2204247 0.2219707 0.2208058 0.2237806 0.2306758 0.2323936 0.237082 0.2399206 0.2430726 0.2499065 0.2559407 0.2578043 0.2583238 0.2598742 0.2615896 0.2623606 0.256712 0.2528442 0.2535227 0.2543413 0.2558617 0.2632993 0.2725573 0.2786502 0.2823137 0.2781305 0.2739484 0.279435 0.3210033 0.3917696 0.3228583 0.2849519 0.256763 0.2454807 0.2381837 0.2282644 0.2177379 0.2159467 0.2181547 0.2196853 0.2204247 0.2219707 0.2208058 0.2237806 0.2306758 0.2323936 0.237082 0.2399206 0.2430726 0.2499065 0.2559407 0.2578043 0.2583238 0.2598742 0.2615896 0.2623606 0.256712 0.2528442 0.2535227 0.2543413 0.2558617 0.2632993 0.2725573 0.2786502 0.2823137 0.2781305 0.2739484 0.279435 0.3210033 0.3917696 0.3228583 0.2849519 0.256763 0.2454807 0.2381837 0.2282644 0.2177379 0.2159467 0.2181547 0.2196853 0.2204247 0.2219707 0.2208058 0.2237806 0.2306758 0.2323936 0.237082 0.2399206 0.2430726 0.2499065 0.2559407 0.2578043 0.2583238 0.2598742 0.2615896 0.2623606 0.256712 0.2528442 0.2535227 0.2543413 0.2558617 0.2632993 0.2725573 0.2786502 0.2823137 0.2781305 0.2739484 0.279435 0.3210033 0.3917696 0.3228583 0.2849519 0.256763 0.2454807 0.2381837 0.2282644 0.2177379 0.2159467 0.2181547 0.2196853 0.2204247 0.2219707 0.2208058 0.2237806 0.2306758 0.2323936 0.237082 0.2399206 0.2430726 0.2499065 0.2559407 0.2578043 0.2583238 0.2598742 0.2615896 0.2623606 0.256712 0.2528442 0.2535227 0.2543413 0.2558617 0.2632993 0.2725573 0.2786502 0.2823137 0.2781305 0.2739484 0.279435 0.3210033 0.3917696 0.3228583 0.2849519 0.256763 0.2454807 0.2381837 0.2282644 0.2177379 0.2159467 0.2181547 0.2196853 0.2204247 0.2219707 0.2208058 0.2237806 0.2306758 0.2323936 0.237082 0.2399206 0.2430726 0.2499065 0.2559407 0.2578043 0.2583238 0.2598742 0.2615896 0.2623606 0.256712 0.2528442 0.2535227 0.2543413 0.2558617 0.2632993 0.2725573 0.2786502 0.2823137 0.2781305 0.2739484 0.279435 0.3210033 ]
</Nnet>
